sample_nr,time_block,education_bias
1,1,0.0006057024002075195
1,2,-0.010886862874031067
1,3,-0.02631966769695282
1,4,-0.02614191174507141
2,1,-0.03665643930435181
2,2,-0.03441573679447174
2,3,-0.04700511693954468
2,4,-0.03947262465953827
3,1,-0.024167850613594055
3,2,-0.0067521631717681885
3,3,-0.01861150562763214
3,4,-0.03789892792701721
4,1,-0.04133996367454529
4,2,-0.038584038615226746
4,3,-0.03252948820590973
4,4,-0.03369319438934326
5,1,-0.010193198919296265
5,2,-0.023455873131752014
5,3,-0.04248251020908356
5,4,-0.04483550786972046
6,1,0.007691740989685059
6,2,0.0023723244667053223
6,3,-0.025965601205825806
6,4,-0.018256619572639465
7,1,-0.020052462816238403
7,2,0.0008169561624526978
7,3,-0.029429331421852112
7,4,-0.03449162840843201
8,1,-0.012053295969963074
8,2,-0.016218557953834534
8,3,-0.027563124895095825
8,4,-0.03792800009250641
9,1,-0.006594210863113403
9,2,-0.01034402847290039
9,3,-0.02777513861656189
9,4,-0.028352469205856323
10,1,-0.01885320246219635
10,2,-0.02848021686077118
10,3,-0.03435060381889343
10,4,-0.033090218901634216
11,1,0.020049557089805603
11,2,0.023381724953651428
11,3,-0.00041003525257110596
11,4,-0.004550829529762268
12,1,-0.010331451892852783
12,2,-0.023018985986709595
12,3,-0.036573246121406555
12,4,-0.047020405530929565
13,1,-0.013947412371635437
13,2,-0.018820732831954956
13,3,-0.037868618965148926
13,4,-0.04231812059879303
14,1,-0.033255621790885925
14,2,-0.014711335301399231
14,3,-0.03232558071613312
14,4,-0.03717814385890961
15,1,0.014798879623413086
15,2,0.014738991856575012
15,3,-0.008383944630622864
15,4,-0.0008671432733535767
16,1,-0.024012327194213867
16,2,-0.03743903338909149
16,3,-0.024327099323272705
16,4,-0.02890750765800476
17,1,0.0010548532009124756
17,2,0.003587275743484497
17,3,0.0029627978801727295
17,4,0.004280984401702881
18,1,-0.007259011268615723
18,2,-0.003520280122756958
18,3,-0.01510263979434967
18,4,-0.010680466890335083
19,1,-0.021230384707450867
19,2,-0.0354456901550293
19,3,-0.03536468744277954
19,4,-0.019549056887626648
20,1,-0.007216751575469971
20,2,-0.00039355456829071045
20,3,-0.015055283904075623
20,4,-0.01607559621334076
21,1,-0.015626564621925354
21,2,-0.00946284830570221
21,3,-0.03481832146644592
21,4,-0.024715930223464966
22,1,-0.014494314789772034
22,2,-0.034204497933387756
22,3,-0.046815529465675354
22,4,-0.04816201329231262
23,1,0.003585726022720337
23,2,0.0005922764539718628
23,3,-0.02795495092868805
23,4,-0.02232716977596283
24,1,-0.015546217560768127
24,2,0.002976730465888977
24,3,-0.019075512886047363
24,4,-0.009524598717689514
25,1,-0.004254549741744995
25,2,0.0009535253047943115
25,3,-0.011853769421577454
25,4,-0.016187310218811035
26,1,-0.02427661418914795
26,2,-0.01662251353263855
26,3,-0.030894458293914795
26,4,-0.026507362723350525
27,1,-0.0029642432928085327
27,2,-9.498000144958496e-05
27,3,-0.010890394449234009
27,4,-0.016013935208320618
28,1,-0.014804959297180176
28,2,-0.01684705913066864
28,3,-0.02129906415939331
28,4,-0.024094820022583008
29,1,-0.0017744451761245728
29,2,-0.007071360945701599
29,3,-0.009314581751823425
29,4,-1.1265277862548828e-05
30,1,-0.013306975364685059
30,2,-0.028938844799995422
30,3,-0.03828597068786621
30,4,-0.041549041867256165
31,1,-0.02460290491580963
31,2,-0.02704085409641266
31,3,-0.04373274743556976
31,4,-0.04151777923107147
32,1,0.003741621971130371
32,2,0.002855435013771057
32,3,-0.0211351215839386
32,4,-0.030740097165107727
33,1,-0.0241735577583313
33,2,-0.03793680667877197
33,3,-0.03658440709114075
33,4,-0.03681892156600952
34,1,0.00040522217750549316
34,2,-0.013547614216804504
34,3,-0.016290515661239624
34,4,-0.027152612805366516
35,1,-0.01417793333530426
35,2,-0.013476729393005371
35,3,-0.017914533615112305
35,4,-0.018454015254974365
36,1,-0.012490391731262207
36,2,-0.00780177116394043
36,3,-0.018596291542053223
36,4,-0.0312957763671875
37,1,-0.023116707801818848
37,2,-0.021915331482887268
37,3,-0.03764711320400238
37,4,-0.03076399862766266
38,1,-0.009995430707931519
38,2,-0.02312473952770233
38,3,-0.026314035058021545
38,4,-0.024017512798309326
39,1,-0.00755736231803894
39,2,-0.008133992552757263
39,3,-0.010460495948791504
39,4,-0.016937628388404846
40,1,-0.016704201698303223
40,2,-0.007507890462875366
40,3,-0.02405838668346405
40,4,-0.03294019401073456
41,1,0.004659369587898254
41,2,0.00648246705532074
41,3,0.0009132325649261475
41,4,0.006331056356430054
42,1,-0.02246861159801483
42,2,-0.05688704550266266
42,3,-0.04643493890762329
42,4,-0.047145068645477295
43,1,-0.009062051773071289
43,2,-0.012814894318580627
43,3,-0.025794684886932373
43,4,-0.026590824127197266
44,1,-0.016872093081474304
44,2,-0.015285924077033997
44,3,-0.025087907910346985
44,4,-0.024280697107315063
45,1,0.011839941143989563
45,2,0.01755693554878235
45,3,-0.012953490018844604
45,4,-0.01887659728527069
46,1,-0.00703004002571106
46,2,-0.015580683946609497
46,3,-0.024491310119628906
46,4,-0.017550021409988403
47,1,0.005377084016799927
47,2,-0.009341761469841003
47,3,-0.02302601933479309
47,4,-0.010325655341148376
48,1,0.021452412009239197
48,2,-0.003513813018798828
48,3,-0.000585213303565979
48,4,-0.0026540011167526245
49,1,-0.022159114480018616
49,2,-0.029841676354408264
49,3,-0.039868324995040894
49,4,-0.03207528591156006
50,1,-0.005023881793022156
50,2,0.014276310801506042
50,3,0.000948786735534668
50,4,0.0036728084087371826
51,1,0.004454746842384338
51,2,-0.02355349063873291
51,3,-0.030034944415092468
51,4,-0.033665731549263
52,1,0.0026748478412628174
52,2,0.004651576280593872
52,3,-0.02060672640800476
52,4,-0.025216877460479736
53,1,-0.012836530804634094
53,2,-0.017718225717544556
53,3,-0.034768521785736084
53,4,-0.04424728453159332
54,1,-0.0002667158842086792
54,2,-0.0012834519147872925
54,3,-0.03157621622085571
54,4,-0.04191257059574127
55,1,-0.02779066562652588
55,2,-0.03850172460079193
55,3,-0.03902961313724518
55,4,-0.035695627331733704
56,1,-0.015774846076965332
56,2,-0.03106868267059326
56,3,-0.027696579694747925
56,4,-0.03169083595275879
57,1,-0.024762660264968872
57,2,-0.0494312047958374
57,3,-0.05843853950500488
57,4,-0.0654238760471344
58,1,-0.006528571248054504
58,2,-0.015859901905059814
58,3,-0.019004344940185547
58,4,-0.020917430520057678
59,1,0.0009573251008987427
59,2,-0.025738030672073364
59,3,-0.018432974815368652
59,4,-0.02296346426010132
60,1,-0.002024933695793152
60,2,-0.027781307697296143
60,3,-0.03305599093437195
60,4,-0.03824229538440704
61,1,-0.017647862434387207
61,2,-0.014312982559204102
61,3,-0.03829850256443024
61,4,-0.03254838287830353
62,1,-0.006694957613945007
62,2,0.0042791664600372314
62,3,-0.01029178500175476
62,4,-0.006373658776283264
63,1,0.002262115478515625
63,2,0.02339901030063629
63,3,-0.004882842302322388
63,4,-0.006697073578834534
64,1,-0.0162125825881958
64,2,-0.013459563255310059
64,3,-0.039493411779403687
64,4,-0.042954832315444946
65,1,-0.0038342326879501343
65,2,-0.016112536191940308
65,3,-0.028258338570594788
65,4,-0.0272204726934433
66,1,-0.008319750428199768
66,2,-0.02390405535697937
66,3,-0.012642905116081238
66,4,-0.0176687091588974
67,1,-0.011526167392730713
67,2,-0.006741851568222046
67,3,-0.017434850335121155
67,4,-0.008349865674972534
68,1,-0.011098548769950867
68,2,-0.024000152945518494
68,3,-0.03604699671268463
68,4,-0.04065778851509094
69,1,-0.011248797178268433
69,2,-0.037774860858917236
69,3,-0.05001389980316162
69,4,-0.042346253991127014
70,1,-0.0152970552444458
70,2,-0.04718281328678131
70,3,-0.048225194215774536
70,4,-0.05083458125591278
71,1,0.006129905581474304
71,2,-0.020554319024086
71,3,-0.01660826802253723
71,4,-0.01612427830696106
72,1,-0.011988833546638489
72,2,-0.02805343270301819
72,3,-0.033407196402549744
72,4,-0.031000033020973206
73,1,-0.007756620645523071
73,2,-0.003802746534347534
73,3,-0.03659126162528992
73,4,-0.03241732716560364
74,1,-0.010626956820487976
74,2,-0.04226163029670715
74,3,-0.04346175491809845
74,4,-0.03886410593986511
75,1,0.0077059268951416016
75,2,-0.01601061224937439
75,3,-0.030608952045440674
75,4,-0.03127671778202057
76,1,0.009260743856430054
76,2,-0.00639556348323822
76,3,-0.0012001097202301025
76,4,-0.006121903657913208
77,1,-0.010867908596992493
77,2,-0.01377442479133606
77,3,-0.028284892439842224
77,4,-0.03450648486614227
78,1,-0.012150555849075317
78,2,-0.025371164083480835
78,3,-0.025777265429496765
78,4,-0.0266888290643692
79,1,-0.01887233555316925
79,2,-0.02478136122226715
79,3,-0.03316737711429596
79,4,-0.024698898196220398
80,1,-0.01771417260169983
80,2,-0.013348445296287537
80,3,-0.01971052587032318
80,4,-0.01794523000717163
81,1,-0.00854252278804779
81,2,-0.012704610824584961
81,3,-0.036060601472854614
81,4,-0.02501673996448517
82,1,-0.003248646855354309
82,2,-0.012228474020957947
82,3,-0.044647395610809326
82,4,-0.05136825144290924
83,1,-0.010732278227806091
83,2,-0.027588889002799988
83,3,-0.036900922656059265
83,4,-0.029850497841835022
84,1,-0.02941763401031494
84,2,-0.022735118865966797
84,3,-0.045300617814064026
84,4,-0.04503042995929718
85,1,-0.019114524126052856
85,2,-0.0021183043718338013
85,3,-0.017061501741409302
85,4,-0.009280756115913391
86,1,-0.02047349512577057
86,2,-0.015837013721466064
86,3,-0.01773005723953247
86,4,-0.019884556531906128
87,1,-0.03441441059112549
87,2,-0.03713396191596985
87,3,-0.03998188674449921
87,4,-0.047666579484939575
88,1,0.005784273147583008
88,2,-0.010484859347343445
88,3,-0.025430262088775635
88,4,-0.0241277813911438
89,1,-0.007718250155448914
89,2,-0.01837928593158722
89,3,-0.034962400794029236
89,4,-0.031048864126205444
90,1,-0.0247354656457901
90,2,-0.04177062213420868
90,3,-0.061714425683021545
90,4,-0.06821990013122559
91,1,-0.012411728501319885
91,2,-0.02067984640598297
91,3,-0.030120208859443665
91,4,-0.027482569217681885
92,1,-0.0153006911277771
92,2,-0.036050841212272644
92,3,-0.030612006783485413
92,4,-0.02986389398574829
93,1,-0.019190222024917603
93,2,-0.010093599557876587
93,3,-0.0071722716093063354
93,4,-0.006418466567993164
94,1,-0.001037895679473877
94,2,-0.008086442947387695
94,3,-0.0309038907289505
94,4,-0.03191959857940674
95,1,-0.022303223609924316
95,2,-0.03665719926357269
95,3,-0.02367168664932251
95,4,-0.014198675751686096
96,1,-0.008187830448150635
96,2,0.004295021295547485
96,3,-0.02278861403465271
96,4,-0.026192232966423035
97,1,-0.014445990324020386
97,2,-0.03216467797756195
97,3,-0.03133875131607056
97,4,-0.02828134596347809
98,1,0.001010403037071228
98,2,-0.01156066358089447
98,3,-0.036548927426338196
98,4,-0.0422089546918869
99,1,0.02058437466621399
99,2,0.00782795250415802
99,3,-0.024753645062446594
99,4,-0.03218892216682434
100,1,-0.015493631362915039
100,2,-0.03557834029197693
100,3,-0.04789289832115173
100,4,-0.0496600866317749
101,1,-0.00399993360042572
101,2,-0.0043437182903289795
101,3,-0.012957766652107239
101,4,-0.012525931000709534
102,1,-0.019744232296943665
102,2,-0.024441078305244446
102,3,-0.020633086562156677
102,4,-0.029539763927459717
103,1,-0.007929757237434387
103,2,-0.02839834988117218
103,3,-0.0357336699962616
103,4,-0.03651629388332367
104,1,0.027228176593780518
104,2,0.027081027626991272
104,3,0.011588886380195618
104,4,0.001232057809829712
105,1,-0.027226507663726807
105,2,-0.0349588543176651
105,3,-0.02285100519657135
105,4,-0.019940927624702454
106,1,-0.01043669879436493
106,2,-0.019416823983192444
106,3,-0.03759931027889252
106,4,-0.03210543096065521
107,1,-0.002111777663230896
107,2,-0.007830113172531128
107,3,-0.022789567708969116
107,4,-0.016843274235725403
108,1,-0.004968389868736267
108,2,0.0023040026426315308
108,3,-0.012275516986846924
108,4,-0.021244943141937256
109,1,-0.02149994671344757
109,2,-0.026075392961502075
109,3,-0.05604472756385803
109,4,-0.045944944024086
110,1,0.0005289614200592041
110,2,-0.018635615706443787
110,3,-0.04454223811626434
110,4,-0.043493494391441345
111,1,-0.03366686403751373
111,2,-0.022990047931671143
111,3,-0.03413647413253784
111,4,-0.034759730100631714
112,1,-0.025053545832633972
112,2,-0.030116453766822815
112,3,-0.023696690797805786
112,4,-0.01849217712879181
113,1,-0.0027766525745391846
113,2,-0.010755032300949097
113,3,-0.01866351068019867
113,4,-0.02216164767742157
114,1,-0.020334795117378235
114,2,-0.029780641198158264
114,3,-0.025140613317489624
114,4,-0.017955288290977478
115,1,-0.005851298570632935
115,2,-0.008208110928535461
115,3,-0.017152145504951477
115,4,-0.020380899310112
116,1,0.017818525433540344
116,2,0.015228107571601868
116,3,-0.0035149604082107544
116,4,-0.000971570611000061
117,1,-0.014586150646209717
117,2,-0.0073642730712890625
117,3,-0.029435455799102783
117,4,-0.0313616544008255
118,1,-0.00500895082950592
118,2,0.010939031839370728
118,3,-0.017377957701683044
118,4,-0.014119625091552734
119,1,-0.0044364333152771
119,2,-0.012066438794136047
119,3,-0.040622636675834656
119,4,-0.03646957874298096
120,1,-0.029143884778022766
120,2,-0.033444762229919434
120,3,-0.033723920583724976
120,4,-0.02440561354160309
121,1,-0.027503222227096558
121,2,-0.022068634629249573
121,3,-0.018685728311538696
121,4,-0.010104849934577942
122,1,-0.022554561495780945
122,2,-0.03242078423500061
122,3,-0.03396002948284149
122,4,-0.039740920066833496
123,1,-0.009413287043571472
123,2,-0.009111285209655762
123,3,-0.0153818279504776
123,4,-0.002942383289337158
124,1,-0.009260013699531555
124,2,-0.03133213520050049
124,3,-0.017441466450691223
124,4,-0.029737964272499084
125,1,-0.011618629097938538
125,2,-0.012972354888916016
125,3,-0.023254498839378357
125,4,-0.03404282033443451
126,1,0.002072066068649292
126,2,0.003004714846611023
126,3,-0.02071833610534668
126,4,-0.018055379390716553
127,1,0.0006825625896453857
127,2,-0.003787904977798462
127,3,-0.006874978542327881
127,4,-0.010950520634651184
128,1,-0.018052324652671814
128,2,-0.04309526085853577
128,3,-0.06100226938724518
128,4,-0.05965997278690338
129,1,0.01420554518699646
129,2,-0.0010690242052078247
129,3,-0.020561769604682922
129,4,-0.02475607395172119
130,1,-0.004551932215690613
130,2,-0.011008203029632568
130,3,-0.035741016268730164
130,4,-0.03423970937728882
131,1,0.012198865413665771
131,2,-0.002571702003479004
131,3,-0.02334943413734436
131,4,-0.02072213590145111
132,1,-0.00393146276473999
132,2,-0.006262660026550293
132,3,-0.023756101727485657
132,4,-0.02498278021812439
133,1,-0.013427197933197021
133,2,-0.02589431405067444
133,3,-0.03397008776664734
133,4,-0.03714624047279358
134,1,0.002595677971839905
134,2,-0.009728088974952698
134,3,-0.025334849953651428
134,4,-0.023992285132408142
135,1,-0.0057547688484191895
135,2,-0.0027855336666107178
135,3,-0.01696048676967621
135,4,-0.021275177597999573
136,1,-0.023787230253219604
136,2,-0.0515718013048172
136,3,-0.05066908895969391
136,4,-0.0392182320356369
137,1,-0.0173293799161911
137,2,-0.015475288033485413
137,3,-0.038407549262046814
137,4,-0.023904025554656982
138,1,-0.014924854040145874
138,2,-0.01737530529499054
138,3,-0.030957132577896118
138,4,-0.027706578373908997
139,1,-0.010195985436439514
139,2,-0.01894548535346985
139,3,-0.01609662175178528
139,4,-0.011464804410934448
140,1,-0.01136656105518341
140,2,-0.017283424735069275
140,3,-0.04085572063922882
140,4,-0.03635425865650177
141,1,-0.006941303610801697
141,2,-0.011646166443824768
141,3,-0.017962709069252014
141,4,-0.016910135746002197
142,1,-0.0074096620082855225
142,2,-0.009789630770683289
142,3,-0.0076842159032821655
142,4,-0.017604872584342957
143,1,-0.0029156655073165894
143,2,-0.0036880522966384888
143,3,0.0025143325328826904
143,4,-0.005329504609107971
144,1,0.0022623538970947266
144,2,-0.007034420967102051
144,3,-0.01913323998451233
144,4,-0.021513640880584717
145,1,0.007399648427963257
145,2,0.018385902047157288
145,3,-0.01120544970035553
145,4,-0.010704457759857178
146,1,0.0013379454612731934
146,2,-0.0006183087825775146
146,3,-0.013170912861824036
146,4,-0.01978185772895813
147,1,-0.020393356680870056
147,2,-0.03757883608341217
147,3,-0.06446672976016998
147,4,-0.06816084682941437
148,1,-0.016089245676994324
148,2,-0.013965964317321777
148,3,-0.03983345627784729
148,4,-0.044016510248184204
149,1,-0.015533819794654846
149,2,-0.031053394079208374
149,3,-0.03246299922466278
149,4,-0.03302872180938721
150,1,-0.019043713808059692
150,2,-0.02758161723613739
150,3,-0.04125119745731354
150,4,-0.036902278661727905
151,1,-0.01291733980178833
151,2,-0.0181351900100708
151,3,-0.019440993666648865
151,4,-0.03021933138370514
152,1,-0.02345190942287445
152,2,-0.04538106918334961
152,3,-0.03931558132171631
152,4,-0.03357359766960144
153,1,-0.014386191964149475
153,2,-0.030223533511161804
153,3,-0.0392782986164093
153,4,-0.043221235275268555
154,1,-0.012217462062835693
154,2,-0.01800854504108429
154,3,-0.02505660057067871
154,4,-0.027743324637413025
155,1,0.001637294888496399
155,2,-0.0005806833505630493
155,3,-0.0308837890625
155,4,-0.03421159088611603
156,1,-0.013200506567955017
156,2,-0.02521878480911255
156,3,-0.03243310749530792
156,4,-0.02339482307434082
157,1,-0.02779380977153778
157,2,-0.01933431625366211
157,3,-0.009208619594573975
157,4,-0.009660959243774414
158,1,-0.021876275539398193
158,2,-0.0157783180475235
158,3,-0.017159700393676758
158,4,-0.02434965968132019
159,1,-0.017697200179100037
159,2,-0.004499807953834534
159,3,-0.011600121855735779
159,4,-0.02523687481880188
160,1,-0.029188618063926697
160,2,-0.03786608576774597
160,3,-0.038477376103401184
160,4,-0.04034268856048584
161,1,-0.016474440693855286
161,2,-0.020178765058517456
161,3,-0.032879993319511414
161,4,-0.02660524845123291
162,1,-0.01877407729625702
162,2,-0.040594786405563354
162,3,-0.05040538311004639
162,4,-0.04652123153209686
163,1,-0.02036336064338684
163,2,-0.016360580921173096
163,3,-0.015175625681877136
163,4,-0.012136057019233704
164,1,-0.007959231734275818
164,2,-0.022603318095207214
164,3,-0.04695761203765869
164,4,-0.045884013175964355
165,1,-0.004449337720870972
165,2,-0.01687416434288025
165,3,-0.015849724411964417
165,4,-0.02223217487335205
166,1,-0.011353179812431335
166,2,-0.024797409772872925
166,3,-0.035991862416267395
166,4,-0.03992559015750885
167,1,-0.011420279741287231
167,2,-0.026495903730392456
167,3,-0.05296821892261505
167,4,-0.054746001958847046
168,1,-0.01722431182861328
168,2,-0.019285857677459717
168,3,-0.04172535240650177
168,4,-0.036246106028556824
169,1,-0.005326703190803528
169,2,-0.0025938451290130615
169,3,-0.02033713459968567
169,4,-0.01898472011089325
170,1,0.002400830388069153
170,2,0.010426580905914307
170,3,-0.012706145644187927
170,4,-0.0193987637758255
171,1,-0.03705592453479767
171,2,-0.04542532563209534
171,3,-0.05702237784862518
171,4,-0.05876202881336212
172,1,0.0026655197143554688
172,2,-0.016494393348693848
172,3,-0.025852814316749573
172,4,-0.032791391015052795
173,1,-0.03557926416397095
173,2,-0.04858130216598511
173,3,-0.06041449308395386
173,4,-0.06383553147315979
174,1,-0.013281568884849548
174,2,-0.030122384428977966
174,3,-0.03298477828502655
174,4,-0.029433071613311768
175,1,-0.007620304822921753
175,2,-0.01637488603591919
175,3,-0.026494786143302917
175,4,-0.026204198598861694
176,1,-0.00883173942565918
176,2,-0.011157721281051636
176,3,-0.020528525114059448
176,4,-0.02414768934249878
177,1,-0.010467082262039185
177,2,-0.016879722476005554
177,3,-0.03633633255958557
177,4,-0.03437940776348114
178,1,0.0023907124996185303
178,2,0.0006123632192611694
178,3,-0.03909660875797272
178,4,-0.03881286084651947
179,1,0.011049479246139526
179,2,0.013125553727149963
179,3,-0.0005722939968109131
179,4,-0.009340912103652954
180,1,-0.02505698800086975
180,2,-0.04455353319644928
180,3,-0.04051072895526886
180,4,-0.04512634873390198
181,1,-0.02229517698287964
181,2,-0.009761154651641846
181,3,-0.021110638976097107
181,4,-0.02624228596687317
182,1,-0.026927098631858826
182,2,-0.05803258717060089
182,3,-0.04804512858390808
182,4,-0.034162044525146484
183,1,0.0021245479583740234
183,2,0.005304157733917236
183,3,-0.024006173014640808
183,4,-0.020896583795547485
184,1,-0.02005690336227417
184,2,-0.0354437530040741
184,3,-0.03830355405807495
184,4,-0.036193832755088806
185,1,-0.018867313861846924
185,2,-0.03675009310245514
185,3,-0.04256351292133331
185,4,-0.041787296533584595
186,1,0.004309013485908508
186,2,0.00016745924949645996
186,3,-0.01382814347743988
186,4,-0.012119218707084656
187,1,-0.03399991989135742
187,2,-0.020526602864265442
187,3,-0.037155985832214355
187,4,-0.03805293142795563
188,1,-0.016905635595321655
188,2,-0.003983199596405029
188,3,-0.01887492835521698
188,4,-0.01760135591030121
189,1,0.006604313850402832
189,2,-0.010987505316734314
189,3,-0.02092471718788147
189,4,-0.0215713232755661
190,1,-0.006590545177459717
190,2,-0.020891085267066956
190,3,-0.030414685606956482
190,4,-0.028475821018218994
191,1,-0.014102861285209656
191,2,-0.03005361557006836
191,3,-0.032333821058273315
191,4,-0.03652717173099518
192,1,0.014057278633117676
192,2,0.012034028768539429
192,3,0.005997002124786377
192,4,-0.007207110524177551
193,1,-0.013595327734947205
193,2,0.0003071129322052002
193,3,-0.026796728372573853
193,4,-0.02423366904258728
194,1,-2.364814281463623e-05
194,2,-0.025791525840759277
194,3,-0.03913462162017822
194,4,-0.036118656396865845
195,1,0.005016684532165527
195,2,-0.011633768677711487
195,3,-0.008068755269050598
195,4,-0.009205847978591919
196,1,0.00694604218006134
196,2,0.006534650921821594
196,3,0.003524884581565857
196,4,0.007185071706771851
197,1,0.003271147608757019
197,2,-0.016977012157440186
197,3,-0.03661563992500305
197,4,-0.037416473031044006
198,1,-0.03616800904273987
198,2,-0.03873124718666077
198,3,-0.04815444350242615
198,4,-0.039232999086380005
199,1,-0.01250430941581726
199,2,-0.031089559197425842
199,3,-0.029952362179756165
199,4,-0.03180922567844391
200,1,-0.010545805096626282
200,2,-0.020368561148643494
200,3,-0.013763055205345154
200,4,-0.014341548085212708
201,1,-0.013830587267875671
201,2,-0.011332735419273376
201,3,-0.01503610610961914
201,4,-0.009781524538993835
202,1,-0.011999160051345825
202,2,-0.021539732813835144
202,3,-0.03655253350734711
202,4,-0.03210839629173279
203,1,0.005810543894767761
203,2,-0.02517145872116089
203,3,-0.01593075692653656
203,4,-0.014806225895881653
204,1,-0.026151791214942932
204,2,-0.024076402187347412
204,3,-0.025569811463356018
204,4,-0.024129346013069153
205,1,0.010226532816886902
205,2,0.011709123849868774
205,3,-0.012820735573768616
205,4,-0.019208073616027832
206,1,-0.00908893346786499
206,2,-0.00886012613773346
206,3,-0.024835020303726196
206,4,-0.021396055817604065
207,1,-0.012897759675979614
207,2,-0.02164781093597412
207,3,-0.032673656940460205
207,4,-0.027672141790390015
208,1,-0.016024425625801086
208,2,-0.00624731183052063
208,3,-0.020395830273628235
208,4,-0.019948512315750122
209,1,-0.019718796014785767
209,2,-0.029839709401130676
209,3,-0.019368693232536316
209,4,-0.02542148530483246
210,1,0.0008144378662109375
210,2,-6.888806819915771e-05
210,3,-0.02654723823070526
210,4,-0.026890307664871216
211,1,-0.0023800432682037354
211,2,-0.01119568943977356
211,3,-0.023838385939598083
211,4,-0.027265310287475586
212,1,-0.03764401376247406
212,2,-0.028314009308815002
212,3,-0.02230028808116913
212,4,-0.017460167407989502
213,1,-0.004173189401626587
213,2,0.004330754280090332
213,3,-0.02491772174835205
213,4,-0.02444934844970703
214,1,-0.001776173710823059
214,2,0.004239276051521301
214,3,-0.016318410634994507
214,4,-0.013963401317596436
215,1,-0.024595603346824646
215,2,-0.028419911861419678
215,3,-0.03774489462375641
215,4,-0.042752355337142944
216,1,-0.02637350559234619
216,2,-0.014524385333061218
216,3,-0.027935490012168884
216,4,-0.04142698645591736
217,1,-0.022726163268089294
217,2,-0.017093732953071594
217,3,-0.026571422815322876
217,4,-0.03127194941043854
218,1,-0.010964170098304749
218,2,-0.0326043963432312
218,3,-0.04291491210460663
218,4,-0.04151009023189545
219,1,0.005966126918792725
219,2,0.011061906814575195
219,3,-0.015209540724754333
219,4,-0.025777384638786316
220,1,-0.012019604444503784
220,2,-0.02746105194091797
220,3,-0.0312003493309021
220,4,-0.027553647756576538
221,1,-0.01393081247806549
221,2,-0.004007592797279358
221,3,-0.013556316494941711
221,4,-0.022057190537452698
222,1,-0.017728164792060852
222,2,-0.018526434898376465
222,3,-0.021570399403572083
222,4,-0.024186626076698303
223,1,0.0056188106536865234
223,2,-0.007908090949058533
223,3,-0.02799484133720398
223,4,-0.0324171781539917
224,1,-0.026779070496559143
224,2,-0.04159511625766754
224,3,-0.048966050148010254
224,4,-0.05247332155704498
225,1,0.0019961297512054443
225,2,-0.005635678768157959
225,3,-0.014666780829429626
225,4,-0.011203154921531677
226,1,-0.0031037628650665283
226,2,-0.008077248930931091
226,3,-0.023302897810935974
226,4,-0.0211801677942276
227,1,-0.0016404837369918823
227,2,-0.0017459392547607422
227,3,-0.019098088145256042
227,4,-0.01713027060031891
228,1,0.00287039577960968
228,2,-0.00033286213874816895
228,3,-0.011386051774024963
228,4,-0.019568845629692078
229,1,-0.021451130509376526
229,2,-0.006304025650024414
229,3,-0.03157965838909149
229,4,-0.03154116868972778
230,1,-0.01284894347190857
230,2,-0.011802181601524353
230,3,-0.03246058523654938
230,4,-0.03507824242115021
231,1,-0.03946295380592346
231,2,-0.032109737396240234
231,3,-0.03656645119190216
231,4,-0.03364311158657074
232,1,-0.015799716114997864
232,2,-0.04416954517364502
232,3,-0.03926992416381836
232,4,-0.04170830547809601
233,1,-0.01276940107345581
233,2,-0.04730209708213806
233,3,-0.04546333849430084
233,4,-0.04512377083301544
234,1,0.003384321928024292
234,2,-0.015715301036834717
234,3,-0.01289348304271698
234,4,-0.022054940462112427
235,1,0.01307302713394165
235,2,0.004960477352142334
235,3,-0.006847664713859558
235,4,-0.005060762166976929
236,1,0.0016031414270401
236,2,-0.03168193995952606
236,3,-0.03940629959106445
236,4,-0.0449230819940567
237,1,0.011942043900489807
237,2,-0.002420097589492798
237,3,-0.0179184228181839
237,4,-0.01702466607093811
238,1,-0.005589812994003296
238,2,-0.014947980642318726
238,3,-0.02209632098674774
238,4,-0.016744688153266907
239,1,0.0033150017261505127
239,2,-0.01997259259223938
239,3,-0.019491881132125854
239,4,-0.012815669178962708
240,1,-0.0017314702272415161
240,2,0.01035967469215393
240,3,-0.007244318723678589
240,4,-0.012304291129112244
241,1,0.011061564087867737
241,2,-0.000931277871131897
241,3,-0.021636933088302612
241,4,-0.02386760711669922
242,1,0.0064628273248672485
242,2,0.004181906580924988
242,3,-0.0012900978326797485
242,4,-0.003998622298240662
243,1,-0.002714812755584717
243,2,-0.001601383090019226
243,3,-0.020052894949913025
243,4,-0.018998339772224426
244,1,-0.028292283415794373
244,2,-0.029084309935569763
244,3,-0.043616876006126404
244,4,-0.04128345847129822
245,1,-0.022898882627487183
245,2,-0.010891318321228027
245,3,-0.011783704161643982
245,4,-0.019740119576454163
246,1,0.005886510014533997
246,2,0.006744757294654846
246,3,-0.011349216103553772
246,4,-0.015559598803520203
247,1,0.015370950102806091
247,2,-0.008556649088859558
247,3,-0.016734108328819275
247,4,-0.022911161184310913
248,1,-0.016542091965675354
248,2,-0.0329594761133194
248,3,-0.041869089007377625
248,4,-0.0336989164352417
249,1,-0.02007441222667694
249,2,-0.0148630291223526
249,3,-0.026475772261619568
249,4,-0.02527184784412384
250,1,-0.02699291706085205
250,2,-0.03524234890937805
250,3,-0.03197355568408966
250,4,-0.028815537691116333
251,1,-0.019220352172851562
251,2,-0.030739933252334595
251,3,-0.04268120229244232
251,4,-0.03515796363353729
252,1,0.0009464770555496216
252,2,-0.00988815724849701
252,3,-0.02139309048652649
252,4,-0.03067140281200409
253,1,0.005684077739715576
253,2,0.0008336305618286133
253,3,-0.030169323086738586
253,4,-0.027397379279136658
254,1,-0.0065839290618896484
254,2,0.0012796074151992798
254,3,-0.013791978359222412
254,4,-0.01648746430873871
255,1,-0.01088927686214447
255,2,-0.01428888738155365
255,3,-0.023459911346435547
255,4,-0.024013042449951172
256,1,-0.02951788902282715
256,2,-0.025969520211219788
256,3,-0.0077833086252212524
256,4,-0.010090231895446777
257,1,-0.009134426712989807
257,2,-0.01971656084060669
257,3,-0.0343669056892395
257,4,-0.04663631319999695
258,1,-0.020929589867591858
258,2,-0.054608553647994995
258,3,-0.05051104724407196
258,4,-0.050710245966911316
259,1,0.007725372910499573
259,2,-0.013116270303726196
259,3,-0.04720723628997803
259,4,-0.04006282985210419
260,1,-0.02289685606956482
260,2,-0.03953547775745392
260,3,-0.044732943177223206
260,4,-0.04172861576080322
261,1,0.018675386905670166
261,2,0.0006867200136184692
261,3,0.005578234791755676
261,4,-0.0011858344078063965
262,1,-0.01769213378429413
262,2,-0.022772982716560364
262,3,-0.023972079157829285
262,4,-0.021722406148910522
263,1,-0.012720987200737
263,2,-0.020272046327590942
263,3,-0.03176005184650421
263,4,-0.039278119802474976
264,1,-0.009643107652664185
264,2,-0.0019477903842926025
264,3,-0.012700527906417847
264,4,-0.006161019206047058
265,1,-0.015068233013153076
265,2,-0.017861008644104004
265,3,-0.03314150869846344
265,4,-0.034529849886894226
266,1,-0.02444303035736084
266,2,-0.026746287941932678
266,3,-0.040938735008239746
266,4,-0.029837682843208313
267,1,-0.021825343370437622
267,2,-0.02849477529525757
267,3,-0.04472850263118744
267,4,-0.0485600084066391
268,1,-0.014034867286682129
268,2,-0.0305783748626709
268,3,-0.031017467379570007
268,4,-0.027011200785636902
269,1,0.006314396858215332
269,2,-0.0063984692096710205
269,3,-0.013143852353096008
269,4,-0.009272322058677673
270,1,-0.009718120098114014
270,2,0.00015810132026672363
270,3,-0.018816307187080383
270,4,-0.016205668449401855
271,1,-0.011441230773925781
271,2,-0.02448064088821411
271,3,-0.03431202471256256
271,4,-0.03337112069129944
272,1,-0.003111541271209717
272,2,-0.0012734979391098022
272,3,-0.008619293570518494
272,4,-0.011934936046600342
273,1,-0.0022780150175094604
273,2,-0.0128277987241745
273,3,-0.0012281090021133423
273,4,-0.006793081760406494
274,1,-0.030040845274925232
274,2,-0.035936638712882996
274,3,-0.03800812363624573
274,4,-0.03417086601257324
275,1,-0.02303473651409149
275,2,-0.03155912458896637
275,3,-0.041235655546188354
275,4,-0.03440731763839722
276,1,-0.025221407413482666
276,2,-0.023061513900756836
276,3,-0.03323677182197571
276,4,-0.029708445072174072
277,1,-0.02576175332069397
277,2,-0.04572369158267975
277,3,-0.05043892562389374
277,4,-0.05287805199623108
278,1,-0.002289697527885437
278,2,-0.01019887626171112
278,3,-0.023117735981941223
278,4,-0.023029804229736328
279,1,-0.005598917603492737
279,2,0.002644151449203491
279,3,-0.005840137600898743
279,4,-0.006931304931640625
280,1,-0.02196905016899109
280,2,-0.021804675459861755
280,3,-0.02718515694141388
280,4,-0.023923233151435852
281,1,-0.019851461052894592
281,2,-0.04137597978115082
281,3,-0.042858585715293884
281,4,-0.04082350432872772
282,1,-0.0016181319952011108
282,2,-0.02684006094932556
282,3,-0.04230093955993652
282,4,-0.03387071192264557
283,1,-0.006139814853668213
283,2,-0.011332377791404724
283,3,-0.004274740815162659
283,4,-0.0017600208520889282
284,1,-0.008297353982925415
284,2,-0.03175388276576996
284,3,-0.03893956542015076
284,4,-0.0375877320766449
285,1,-0.008070260286331177
285,2,-0.01201455295085907
285,3,-0.025744497776031494
285,4,-0.02238588035106659
286,1,-0.012644350528717041
286,2,-0.026899635791778564
286,3,-0.026353225111961365
286,4,-0.030394643545150757
287,1,-0.024088621139526367
287,2,-0.014808163046836853
287,3,-0.038485750555992126
287,4,-0.03891576826572418
288,1,-0.0011305809020996094
288,2,0.005497679114341736
288,3,-0.01867412030696869
288,4,-0.02390912175178528
289,1,-0.020766839385032654
289,2,-0.02108640968799591
289,3,-0.02541622519493103
289,4,-0.025685250759124756
290,1,-0.007156789302825928
290,2,-0.01971656084060669
290,3,-0.016383424401283264
290,4,-0.016513675451278687
291,1,-0.005017384886741638
291,2,-0.010836243629455566
291,3,-0.030372068285942078
291,4,-0.019965097308158875
292,1,-0.02079726755619049
292,2,-0.0513361394405365
292,3,-0.06256502866744995
292,4,-0.05487166345119476
293,1,-0.015297159552574158
293,2,-0.030915990471839905
293,3,-0.03640633821487427
293,4,-0.031914010643959045
294,1,-0.023421913385391235
294,2,-0.008351370692253113
294,3,-0.02568255364894867
294,4,-0.022295653820037842
295,1,0.000851064920425415
295,2,-0.026169031858444214
295,3,-0.029124081134796143
295,4,-0.021989673376083374
296,1,-0.005485907196998596
296,2,-0.009266510605812073
296,3,-0.024407193064689636
296,4,-0.018719226121902466
297,1,-0.0009184330701828003
297,2,0.004537999629974365
297,3,-0.01492050290107727
297,4,-0.02234518527984619
298,1,0.013079524040222168
298,2,0.0194452702999115
298,3,-0.009169042110443115
298,4,-0.016578495502471924
299,1,-0.013331815600395203
299,2,-0.02533668279647827
299,3,-0.02764950692653656
299,4,-0.025641724467277527
300,1,-0.01727844774723053
300,2,-0.024466589093208313
300,3,-0.029138848185539246
300,4,-0.025116637349128723
301,1,0.0013838261365890503
301,2,-0.01410055160522461
301,3,-0.014470517635345459
301,4,-0.01742088794708252
302,1,-0.02931077778339386
302,2,-0.04219576716423035
302,3,-0.051172927021980286
302,4,-0.04977668821811676
303,1,-0.022984445095062256
303,2,-0.027469724416732788
303,3,-0.020420700311660767
303,4,-0.03188863396644592
304,1,-0.00855325162410736
304,2,-0.035580918192863464
304,3,-0.03560301661491394
304,4,-0.033879220485687256
305,1,-0.008731454610824585
305,2,-0.005796715617179871
305,3,-0.019511014223098755
305,4,-0.01911647617816925
306,1,1.7240643501281738e-05
306,2,-0.020639315247535706
306,3,-0.03217509388923645
306,4,-0.032213255763053894
307,1,-0.0163918137550354
307,2,-0.011696845293045044
307,3,-0.018195897340774536
307,4,-0.03432297706604004
308,1,-0.014694035053253174
308,2,-0.03165648877620697
308,3,-0.03218834102153778
308,4,-0.023315876722335815
309,1,0.0027502328157424927
309,2,0.004889428615570068
309,3,-0.01470106840133667
309,4,-0.023417755961418152
310,1,-0.012836307287216187
310,2,-0.029158204793930054
310,3,-0.030480995774269104
310,4,-0.035110026597976685
311,1,0.009866535663604736
311,2,0.01662430167198181
311,3,0.0012263953685760498
311,4,-0.002788737416267395
312,1,-0.007913172245025635
312,2,0.004597470164299011
312,3,-0.014853432774543762
312,4,-0.023495212197303772
313,1,-0.02748200297355652
313,2,-0.03391455113887787
313,3,-0.051732927560806274
313,4,-0.051539406180381775
314,1,-0.00484834611415863
314,2,-0.01582665741443634
314,3,-0.028900161385536194
314,4,-0.02960154414176941
315,1,0.004142686724662781
315,2,-0.017368033528327942
315,3,-0.026853293180465698
315,4,-0.025447338819503784
316,1,-0.013922706246376038
316,2,-0.04482695460319519
316,3,-0.037931010127067566
316,4,-0.04431232810020447
317,1,-0.003814205527305603
317,2,-0.007173791527748108
317,3,-0.019891753792762756
317,4,-0.01007525622844696
318,1,-0.0012968480587005615
318,2,-0.005141139030456543
318,3,-0.011368587613105774
318,4,-0.006282344460487366
319,1,-0.004669025540351868
319,2,-0.010904714465141296
319,3,-0.034127071499824524
319,4,-0.044656991958618164
320,1,0.02359013259410858
320,2,0.017006129026412964
320,3,0.0025524795055389404
320,4,0.0010841339826583862
321,1,-0.017907992005348206
321,2,-0.011666536331176758
321,3,-0.02805553376674652
321,4,-0.029345959424972534
322,1,-0.007827311754226685
322,2,-0.017463579773902893
322,3,-0.02393406629562378
322,4,-0.020540818572044373
323,1,-0.007015630602836609
323,2,-0.015162065625190735
323,3,-0.03917999565601349
323,4,-0.04576036334037781
324,1,-0.012883424758911133
324,2,-0.0057424455881118774
324,3,-0.02110852301120758
324,4,-0.028936058282852173
325,1,-0.029107555747032166
325,2,-0.044596925377845764
325,3,-0.03004591166973114
325,4,-0.03551258146762848
326,1,-0.012530073523521423
326,2,-0.027852967381477356
326,3,-0.04338143765926361
326,4,-0.04507392644882202
327,1,0.012178480625152588
327,2,-0.004992589354515076
327,3,-0.02394331991672516
327,4,-0.025680482387542725
328,1,-0.028775334358215332
328,2,-0.0270698219537735
328,3,-0.04090076684951782
328,4,-0.044286489486694336
329,1,-0.01001894474029541
329,2,-0.019925668835639954
329,3,-0.03423641622066498
329,4,-0.03480507433414459
330,1,-0.00018492341041564941
330,2,-0.012279212474822998
330,3,-0.027264565229415894
330,4,-0.02785593271255493
331,1,-0.010122448205947876
331,2,-0.007677629590034485
331,3,-0.021741583943367004
331,4,-0.026892632246017456
332,1,-0.004639655351638794
332,2,-0.014128193259239197
332,3,-0.027501747012138367
332,4,-0.030248209834098816
333,1,-0.010631099343299866
333,2,-0.0212724506855011
333,3,-0.03133028745651245
333,4,-0.02879147231578827
334,1,-0.017158716917037964
334,2,-0.036255449056625366
334,3,-0.028674885630607605
334,4,-0.03377862274646759
335,1,-0.028508678078651428
335,2,-0.01643212139606476
335,3,-0.030689358711242676
335,4,-0.03271318972110748
336,1,0.03235906362533569
336,2,0.019446641206741333
336,3,-0.010991096496582031
336,4,-0.023163139820098877
337,1,-0.002955406904220581
337,2,-0.012649759650230408
337,3,-0.023592010140419006
337,4,-0.02352231740951538
338,1,0.013728871941566467
338,2,-0.0016368627548217773
338,3,-0.017667531967163086
338,4,-0.023300454020500183
339,1,-0.004258215427398682
339,2,-0.0112629234790802
339,3,-0.024066105484962463
339,4,-0.026264801621437073
340,1,-0.000845000147819519
340,2,0.0014816075563430786
340,3,0.009089916944503784
340,4,0.004094958305358887
341,1,-0.021268203854560852
341,2,-0.02129359543323517
341,3,-0.024815067648887634
341,4,-0.02996477484703064
342,1,0.011306360363960266
342,2,-0.012692302465438843
342,3,-0.014310568571090698
342,4,-0.011504292488098145
343,1,-0.0026158541440963745
343,2,0.010915815830230713
343,3,-0.014183536171913147
343,4,-0.011362195014953613
344,1,0.007817268371582031
344,2,-0.009140804409980774
344,3,-0.02405436336994171
344,4,-0.01768811047077179
345,1,-0.025452449917793274
345,2,-0.04663287103176117
345,3,-0.0634562075138092
345,4,-0.05080462992191315
346,1,-0.01842997968196869
346,2,-0.003151312470436096
346,3,-0.008378744125366211
346,4,-0.0170229971408844
347,1,0.00043924152851104736
347,2,-0.02221590280532837
347,3,-0.04073183238506317
347,4,-0.035134851932525635
348,1,-0.019649431109428406
348,2,-0.035448476672172546
348,3,-0.04391975700855255
348,4,-0.04240123927593231
349,1,-0.015203744173049927
349,2,-0.04655502736568451
349,3,-0.024844422936439514
349,4,-0.031703218817710876
350,1,-0.01853567361831665
350,2,-0.015058457851409912
350,3,-0.024353593587875366
350,4,-0.030757427215576172
351,1,-0.019138291478157043
351,2,-0.027222290635108948
351,3,-0.026320070028305054
351,4,-0.027664273977279663
352,1,-0.016226083040237427
352,2,-0.016750499606132507
352,3,-0.023534655570983887
352,4,-0.02211165428161621
353,1,-0.00544169545173645
353,2,-0.004257082939147949
353,3,-0.029716327786445618
353,4,-0.03582243621349335
354,1,-0.0147818922996521
354,2,-0.034778982400894165
354,3,-0.04733121395111084
354,4,-0.0444553941488266
355,1,-0.011709943413734436
355,2,-0.027417346835136414
355,3,-0.043269842863082886
355,4,-0.048953667283058167
356,1,-0.0020526349544525146
356,2,-0.01135343313217163
356,3,-0.02103501558303833
356,4,-0.031635016202926636
357,1,-0.01876974105834961
357,2,-0.028448238968849182
357,3,-0.04211616516113281
357,4,-0.048472970724105835
358,1,-0.013291507959365845
358,2,-0.03339982032775879
358,3,-0.0313410609960556
358,4,-0.03939336538314819
359,1,-0.004403501749038696
359,2,-0.0020972788333892822
359,3,-0.029195979237556458
359,4,-0.034760355949401855
360,1,-0.02053619921207428
360,2,-0.02565281093120575
360,3,-0.033203646540641785
360,4,-0.030246257781982422
361,1,-0.01971319317817688
361,2,-0.029491350054740906
361,3,-0.0260399729013443
361,4,-0.03426128625869751
362,1,-0.032844915986061096
362,2,-0.02087552845478058
362,3,-0.04287056624889374
362,4,-0.03287002444267273
363,1,0.015094846487045288
363,2,0.008761093020439148
363,3,-0.010067030787467957
363,4,-0.012064188718795776
364,1,0.013962864875793457
364,2,0.0016987472772598267
364,3,-0.008399009704589844
364,4,-0.01304677128791809
365,1,-0.014295697212219238
365,2,-0.021290823817253113
365,3,-0.01417742669582367
365,4,-0.011432945728302002
366,1,-0.027592703700065613
366,2,-0.038344934582710266
366,3,-0.03896552324295044
366,4,-0.026439785957336426
367,1,-0.0053254663944244385
367,2,-0.013343721628189087
367,3,-0.036926791071891785
367,4,-0.04119861125946045
368,1,-0.01796722412109375
368,2,-0.018831506371498108
368,3,-0.025220513343811035
368,4,-0.02219162881374359
369,1,-0.014700889587402344
369,2,-0.02284066379070282
369,3,-0.027446851134300232
369,4,-0.030457332730293274
370,1,-0.007281079888343811
370,2,-0.0038146525621414185
370,3,-0.020817860960960388
370,4,-0.016069084405899048
371,1,-0.03700298070907593
371,2,-0.02643589675426483
371,3,-0.030233994126319885
371,4,-0.029340818524360657
372,1,-0.00969339907169342
372,2,0.0011302083730697632
372,3,-0.01812627911567688
372,4,-0.022650688886642456
373,1,-0.02281956374645233
373,2,-0.0510408878326416
373,3,-0.058247655630111694
373,4,-0.04987934231758118
374,1,-0.016502276062965393
374,2,-0.03325594961643219
374,3,-0.037539780139923096
374,4,-0.04532843828201294
375,1,-0.04222537577152252
375,2,-0.05454939603805542
375,3,-0.04636755585670471
375,4,-0.04710903763771057
376,1,0.01738990843296051
376,2,0.002055719494819641
376,3,-0.013511210680007935
376,4,-0.014002412557601929
377,1,0.004633784294128418
377,2,-0.0033375173807144165
377,3,-0.02930651605129242
377,4,-0.030049502849578857
378,1,0.0018956959247589111
378,2,-0.014529585838317871
378,3,-0.01655101776123047
378,4,-0.00799514353275299
379,1,-0.0035798847675323486
379,2,-0.01241709291934967
379,3,-0.01773606240749359
379,4,-0.02025584876537323
380,1,-0.016211465001106262
380,2,-0.004385754466056824
380,3,-0.03428255021572113
380,4,-0.03448304533958435
381,1,-0.016643047332763672
381,2,-0.008407354354858398
381,3,-0.026770010590553284
381,4,-0.024252742528915405
382,1,-0.027937263250350952
382,2,-0.046065330505371094
382,3,-0.03365582227706909
382,4,-0.03448958694934845
383,1,0.014901608228683472
383,2,0.02629786729812622
383,3,-0.009769901633262634
383,4,-0.01969677209854126
384,1,0.004123598337173462
384,2,-0.014742597937583923
384,3,-0.02751171588897705
384,4,-0.028560280799865723
385,1,-0.012465789914131165
385,2,-0.007155463099479675
385,3,-0.027350082993507385
385,4,-0.02343861758708954
386,1,-0.0019200295209884644
386,2,-0.007473558187484741
386,3,-0.022534668445587158
386,4,-0.02392330765724182
387,1,-0.012375101447105408
387,2,-0.028819918632507324
387,3,-0.01866045594215393
387,4,-0.016749367117881775
388,1,-0.012856125831604004
388,2,-0.01696932315826416
388,3,-0.021685123443603516
388,4,-0.018627166748046875
389,1,-0.015720725059509277
389,2,-0.0457463413476944
389,3,-0.05507977306842804
389,4,-0.04545733332633972
390,1,-0.007420599460601807
390,2,-0.012234032154083252
390,3,-0.01679787039756775
390,4,-0.019431009888648987
391,1,-0.029884696006774902
391,2,-0.026564359664916992
391,3,-0.040143221616744995
391,4,-0.03134681284427643
392,1,-0.017626777291297913
392,2,-0.05054827034473419
392,3,-0.0528891384601593
392,4,-0.04433862864971161
393,1,-0.009347110986709595
393,2,-0.017599180340766907
393,3,-0.028221622109413147
393,4,-0.029594093561172485
394,1,-0.02141682803630829
394,2,-0.03802989423274994
394,3,-0.053779810667037964
394,4,-0.057309746742248535
395,1,-0.023627012968063354
395,2,-0.010951399803161621
395,3,-0.030275419354438782
395,4,-0.033254265785217285
396,1,-0.0233457088470459
396,2,-0.022897914052009583
396,3,-0.04002392292022705
396,4,-0.03155528008937836
397,1,0.0024221688508987427
397,2,-0.0040156543254852295
397,3,-0.0162365585565567
397,4,-0.010074317455291748
398,1,-0.011392563581466675
398,2,-0.025681689381599426
398,3,-0.023035168647766113
398,4,-0.026323959231376648
399,1,-0.011146321892738342
399,2,-0.0174323171377182
399,3,-0.015397295355796814
399,4,-0.023148462176322937
400,1,-0.024034932255744934
400,2,-0.019106656312942505
400,3,-0.023717209696769714
400,4,-0.022958755493164062
401,1,-0.03516165912151337
401,2,-0.029869258403778076
401,3,-0.04183955490589142
401,4,-0.03999105095863342
402,1,-0.019170686602592468
402,2,-0.023426681756973267
402,3,-0.029851317405700684
402,4,-0.024055063724517822
403,1,-0.026554033160209656
403,2,-0.030926749110221863
403,3,-0.03878331184387207
403,4,-0.03540201485157013
404,1,-0.00020077824592590332
404,2,-0.006077229976654053
404,3,-0.010207176208496094
404,4,-0.01812712848186493
405,1,0.015637025237083435
405,2,-0.0002642720937728882
405,3,-0.018071666359901428
405,4,-0.014578759670257568
406,1,-0.003316640853881836
406,2,-0.019498497247695923
406,3,-0.030705854296684265
406,4,-0.01856951415538788
407,1,-0.019451722502708435
407,2,-0.023966804146766663
407,3,-0.04104034602642059
407,4,-0.048556044697761536
408,1,-0.007240906357765198
408,2,-0.01075240969657898
408,3,-0.028494715690612793
408,4,-0.027552545070648193
409,1,-0.002921879291534424
409,2,-0.015872597694396973
409,3,-0.04269464313983917
409,4,-0.04119881987571716
410,1,-0.017912954092025757
410,2,-0.01332874596118927
410,3,-0.008277252316474915
410,4,-0.013300493359565735
411,1,-0.01485966145992279
411,2,-0.01810470223426819
411,3,-0.03612862527370453
411,4,-0.03573049604892731
412,1,-0.010740906000137329
412,2,-0.02251952886581421
412,3,-0.03597979247570038
412,4,-0.040897175669670105
413,1,0.007936716079711914
413,2,-0.024354979395866394
413,3,-0.02668808400630951
413,4,-0.03627900779247284
414,1,-0.004641517996788025
414,2,-0.016016021370887756
414,3,-0.03623034060001373
414,4,-0.046012699604034424
415,1,-0.0015924423933029175
415,2,-0.023146703839302063
415,3,-0.03515420854091644
415,4,-0.038559868931770325
416,1,-0.002736911177635193
416,2,-0.01557372510433197
416,3,-0.02852851152420044
416,4,-0.03159071505069733
417,1,-0.015303269028663635
417,2,-0.012001901865005493
417,3,-0.016969650983810425
417,4,-0.017480462789535522
418,1,-0.011982649564743042
418,2,-0.01340574026107788
418,3,-0.032252147793769836
418,4,-0.02946612238883972
419,1,0.012048020958900452
419,2,-0.005330398678779602
419,3,-0.02450782060623169
419,4,-0.028163686394691467
420,1,-0.020631596446037292
420,2,-0.027794823050498962
420,3,-0.039071038365364075
420,4,-0.04290121793746948
421,1,-0.025738254189491272
421,2,-0.027366653084754944
421,3,-0.030627593398094177
421,4,-0.02244052290916443
422,1,-0.021350130438804626
422,2,-0.03393267095088959
422,3,-0.04003642499446869
422,4,-0.03323504328727722
423,1,0.0025913864374160767
423,2,-0.009490787982940674
423,3,-0.025214791297912598
423,4,-0.03669650852680206
424,1,0.0002675056457519531
424,2,-0.016633376479148865
424,3,-0.013546034693717957
424,4,-0.010102435946464539
425,1,-0.005701720714569092
425,2,-0.013679280877113342
425,3,-0.019932076334953308
425,4,-0.008284419775009155
426,1,-0.025766700506210327
426,2,0.0010470300912857056
426,3,-0.017584949731826782
426,4,-0.01920454204082489
427,1,-0.0039174556732177734
427,2,-0.011518895626068115
427,3,-0.0123634934425354
427,4,-0.004654109477996826
428,1,-0.009325861930847168
428,2,-0.007955998182296753
428,3,-0.014258652925491333
428,4,-0.014182552695274353
429,1,-0.005077719688415527
429,2,-0.00825093686580658
429,3,-0.009083613753318787
429,4,-0.011348068714141846
430,1,-0.0261242538690567
430,2,-0.03966131806373596
430,3,-0.0393519252538681
430,4,-0.04308664798736572
431,1,0.010654792189598083
431,2,0.013431131839752197
431,3,-0.003801286220550537
431,4,-0.00995875895023346
432,1,-0.0012986958026885986
432,2,-0.02613130211830139
432,3,-0.04862925410270691
432,4,-0.04246726632118225
433,1,0.02437587082386017
433,2,0.007358849048614502
433,3,-0.020859986543655396
433,4,-0.029192447662353516
434,1,-0.006211340427398682
434,2,-0.03447575867176056
434,3,-0.03576672077178955
434,4,-0.03771328926086426
435,1,-0.008781760931015015
435,2,0.01390211284160614
435,3,-0.01787745952606201
435,4,-0.021069839596748352
436,1,-0.015744462609291077
436,2,-0.01321682333946228
436,3,-0.029591768980026245
436,4,-0.03446775674819946
437,1,0.005624011158943176
437,2,-0.0015026777982711792
437,3,-0.02412739396095276
437,4,-0.019922152161598206
438,1,-0.0020406246185302734
438,2,-0.01613248884677887
438,3,-0.024087831377983093
438,4,-0.023465052247047424
439,1,-0.009085386991500854
439,2,0.005153775215148926
439,3,-0.02317805588245392
439,4,-0.025453761219978333
440,1,-0.024033963680267334
440,2,-0.04722309112548828
440,3,-0.04233461618423462
440,4,-0.04874078929424286
441,1,-0.0068864524364471436
441,2,-0.007532224059104919
441,3,-0.02670969069004059
441,4,-0.029923126101493835
442,1,-0.009378716349601746
442,2,-0.035366401076316833
442,3,-0.03259487450122833
442,4,-0.039343804121017456
443,1,-0.02770286798477173
443,2,-0.009041383862495422
443,3,-0.01942475140094757
443,4,-0.020443424582481384
444,1,-0.02111130952835083
444,2,-0.03402504324913025
444,3,-0.023191824555397034
444,4,-0.02394920587539673
445,1,-0.01990605890750885
445,2,-0.02893170714378357
445,3,-0.028723254799842834
445,4,-0.026358366012573242
446,1,0.006518244743347168
446,2,-0.002181828022003174
446,3,-0.014501065015792847
446,4,-0.025462761521339417
447,1,-0.0022944360971450806
447,2,-0.0010480284690856934
447,3,-0.02856653928756714
447,4,-0.03471843898296356
448,1,-0.025994926691055298
448,2,-0.02069064974784851
448,3,-0.04578216373920441
448,4,-0.04053641855716705
449,1,-0.005694180727005005
449,2,-0.0004643350839614868
449,3,-0.01891086995601654
449,4,-0.010032117366790771
450,1,-0.004218578338623047
450,2,-0.0007139742374420166
450,3,-0.007917732000350952
450,4,-0.00929957628250122
451,1,-0.03479573130607605
451,2,-0.03914986550807953
451,3,-0.04202517867088318
451,4,-0.05301131308078766
452,1,0.005099475383758545
452,2,0.0007168501615524292
452,3,-0.013046100735664368
452,4,-0.013454288244247437
453,1,-0.029419824481010437
453,2,-0.03553353250026703
453,3,-0.0396781861782074
453,4,-0.03237201273441315
454,1,-0.016191139817237854
454,2,-0.045723527669906616
454,3,-0.05185006558895111
454,4,-0.04825794696807861
455,1,-0.01028701663017273
455,2,-0.018663644790649414
455,3,-0.03472772240638733
455,4,-0.03699846565723419
456,1,0.0014673024415969849
456,2,0.007971212267875671
456,3,-0.024339735507965088
456,4,-0.02498258650302887
457,1,-0.007965624332427979
457,2,-0.0025596171617507935
457,3,-0.016418486833572388
457,4,-0.014917239546775818
458,1,-0.0031010210514068604
458,2,-0.011652305722236633
458,3,-0.033240318298339844
458,4,-0.03673519194126129
459,1,0.009085148572921753
459,2,-0.023910149931907654
459,3,-0.03246358036994934
459,4,-0.039122194051742554
460,1,-0.03245629370212555
460,2,-0.045531243085861206
460,3,-0.04336749017238617
460,4,-0.046948790550231934
461,1,-0.008880004286766052
461,2,-0.0048051029443740845
461,3,-0.017876997590065002
461,4,-0.02637958526611328
462,1,0.012225106358528137
462,2,-0.006902709603309631
462,3,-0.03044918179512024
462,4,-0.03368067741394043
463,1,-0.012011632323265076
463,2,-0.02270461618900299
463,3,-0.01884417235851288
463,4,-0.027388080954551697
464,1,-0.019439339637756348
464,2,-0.01227635145187378
464,3,-0.033205240964889526
464,4,-0.037470027804374695
465,1,-0.022708803415298462
465,2,-0.01650121808052063
465,3,-0.04337446391582489
465,4,-0.036399856209754944
466,1,-0.0007303506135940552
466,2,0.0004958063364028931
466,3,-0.02255856990814209
466,4,-0.02463659644126892
467,1,-0.01362466812133789
467,2,-0.02289624512195587
467,3,-0.025696054100990295
467,4,-0.03175659477710724
468,1,-0.018107488751411438
468,2,-0.03018665313720703
468,3,-0.0528922975063324
468,4,-0.05364057421684265
469,1,-0.015475615859031677
469,2,-0.012123316526412964
469,3,-0.024343624711036682
469,4,-0.01871475577354431
470,1,-0.0004733055830001831
470,2,-0.020512551069259644
470,3,-0.038224801421165466
470,4,-0.03795996308326721
471,1,-0.010918915271759033
471,2,-0.03299744427204132
471,3,-0.03832647204399109
471,4,-0.0480363667011261
472,1,-0.008356958627700806
472,2,-0.02647329866886139
472,3,-0.017264097929000854
472,4,-0.022894665598869324
473,1,0.0035314559936523438
473,2,0.0010913312435150146
473,3,-0.018002614378929138
473,4,-0.02999088168144226
474,1,-0.01072239875793457
474,2,-0.00693763792514801
474,3,-0.033888861536979675
474,4,-0.027640163898468018
475,1,-0.0020843148231506348
475,2,-0.007939040660858154
475,3,-0.026082396507263184
475,4,-0.026884645223617554
476,1,0.00787283480167389
476,2,-0.010505735874176025
476,3,-0.03214457631111145
476,4,-0.025603383779525757
477,1,-0.010679036378860474
477,2,-0.015155807137489319
477,3,-0.03411874175071716
477,4,-0.03600263595581055
478,1,-0.021113380789756775
478,2,-0.014631703495979309
478,3,-0.026631370186805725
478,4,-0.012195691466331482
479,1,-0.009509474039077759
479,2,-0.0023836493492126465
479,3,-0.003647059202194214
479,4,-0.008091732859611511
480,1,-0.014970749616622925
480,2,-0.02030031383037567
480,3,-0.02614779770374298
480,4,-0.019876673817634583
481,1,-0.010771036148071289
481,2,-0.01221667230129242
481,3,-0.022636085748672485
481,4,-0.018119901418685913
482,1,-0.026966974139213562
482,2,-0.03826725482940674
482,3,-0.04227060079574585
482,4,-0.0362413227558136
483,1,-0.0008887350559234619
483,2,-0.01310698688030243
483,3,-0.020512089133262634
483,4,-0.023128464818000793
484,1,-0.01265360414981842
484,2,-0.03769637644290924
484,3,-0.03418327867984772
484,4,-0.038098305463790894
485,1,-0.017293602228164673
485,2,-0.016319751739501953
485,3,-0.027617111802101135
485,4,-0.0327921062707901
486,1,-0.014643281698226929
486,2,-0.029135271906852722
486,3,-0.027642831206321716
486,4,-0.023293793201446533
487,1,-0.011050641536712646
487,2,0.013269811868667603
487,3,-0.01633976399898529
487,4,-0.02675098180770874
488,1,-0.020737051963806152
488,2,-0.026277363300323486
488,3,-0.02748510241508484
488,4,-0.02815723419189453
489,1,-0.017001524567604065
489,2,-0.01969708502292633
489,3,-0.04359924793243408
489,4,-0.03410278260707855
490,1,-0.02361525595188141
490,2,-0.048375993967056274
490,3,-0.03770659863948822
490,4,-0.030992522835731506
491,1,-0.033009812235832214
491,2,-0.013376802206039429
491,3,-0.02263130247592926
491,4,-0.02359551191329956
492,1,-0.0013728439807891846
492,2,-0.02217121422290802
492,3,-0.020796671509742737
492,4,-0.008275657892227173
493,1,-0.007556989789009094
493,2,0.0003277510404586792
493,3,-0.035959020256996155
493,4,-0.035055339336395264
494,1,-0.030369341373443604
494,2,-0.0388469398021698
494,3,-0.03672383725643158
494,4,-0.0314803272485733
495,1,0.0033604055643081665
495,2,0.012174829840660095
495,3,-0.004120767116546631
495,4,-0.0027331262826919556
496,1,-0.006504923105239868
496,2,0.002856031060218811
496,3,-0.015955373644828796
496,4,-0.023580387234687805
497,1,-0.03230854868888855
497,2,-0.04867003858089447
497,3,-0.04834394156932831
497,4,-0.041441962122917175
498,1,-0.017676398158073425
498,2,-0.023419737815856934
498,3,-0.03514719009399414
498,4,-0.03505478799343109
499,1,0.012697651982307434
499,2,0.02029271423816681
499,3,-0.010046809911727905
499,4,-0.01054266095161438
500,1,-0.01096886396408081
500,2,-0.003038555383682251
500,3,-0.009381666779518127
500,4,-0.010508254170417786
